digraph Tree {
node [shape=box, style="filled, rounded", color="black", fontname=helvetica] ;
edge [fontname=helvetica] ;
0 [label="Sex=male <= 0.5\ngini = 0.469\nsamples = 712\nvalue = [444, 268]", fillcolor="#f5cdb1"] ;
1 [label="Pclass <= 2.5\ngini = 0.386\nsamples = 245\nvalue = [64, 181]", fillcolor="#7fc0ee"] ;
0 -> 1 [labeldistance=2.5, labelangle=45, headlabel="True"] ;
2 [label="Age <= 2.5\ngini = 0.074\nsamples = 130\nvalue = [5, 125]", fillcolor="#41a1e6"] ;
1 -> 2 ;
3 [label="Fare <= 88.775\ngini = 0.5\nsamples = 2\nvalue = [1, 1]", fillcolor="#ffffff"] ;
2 -> 3 ;
4 [label="gini = 0.0\nsamples = 1\nvalue = [0, 1]", fillcolor="#399de5"] ;
3 -> 4 ;
5 [label="gini = 0.0\nsamples = 1\nvalue = [1, 0]", fillcolor="#e58139"] ;
3 -> 5 ;
6 [label="Deck=C <= 0.5\ngini = 0.061\nsamples = 128\nvalue = [4, 124]", fillcolor="#3fa0e6"] ;
2 -> 6 ;
7 [label="Fare <= 22.0\ngini = 0.038\nsamples = 104\nvalue = [2, 102]", fillcolor="#3d9fe6"] ;
6 -> 7 ;
8 [label="Fare <= 20.25\ngini = 0.124\nsamples = 30\nvalue = [2, 28]", fillcolor="#47a4e7"] ;
7 -> 8 ;
9 [label="Age <= 25.5\ngini = 0.069\nsamples = 28\nvalue = [1, 27]", fillcolor="#40a1e6"] ;
8 -> 9 ;
10 [label="Age <= 23.5\ngini = 0.245\nsamples = 7\nvalue = [1, 6]", fillcolor="#5aade9"] ;
9 -> 10 ;
11 [label="gini = 0.0\nsamples = 3\nvalue = [0, 3]", fillcolor="#399de5"] ;
10 -> 11 ;
12 [label="Familiy_Size <= 1.0\ngini = 0.375\nsamples = 4\nvalue = [1, 3]", fillcolor="#7bbeee"] ;
10 -> 12 ;
13 [label="Deck=unknown <= 0.5\ngini = 0.5\nsamples = 2\nvalue = [1, 1]", fillcolor="#ffffff"] ;
12 -> 13 ;
14 [label="gini = 0.0\nsamples = 1\nvalue = [0, 1]", fillcolor="#399de5"] ;
13 -> 14 ;
15 [label="gini = 0.0\nsamples = 1\nvalue = [1, 0]", fillcolor="#e58139"] ;
13 -> 15 ;
16 [label="gini = 0.0\nsamples = 2\nvalue = [0, 2]", fillcolor="#399de5"] ;
12 -> 16 ;
17 [label="gini = 0.0\nsamples = 21\nvalue = [0, 21]", fillcolor="#399de5"] ;
9 -> 17 ;
18 [label="Familiy_Size <= 2.0\ngini = 0.5\nsamples = 2\nvalue = [1, 1]", fillcolor="#ffffff"] ;
8 -> 18 ;
19 [label="gini = 0.0\nsamples = 1\nvalue = [1, 0]", fillcolor="#e58139"] ;
18 -> 19 ;
20 [label="gini = 0.0\nsamples = 1\nvalue = [0, 1]", fillcolor="#399de5"] ;
18 -> 20 ;
21 [label="gini = 0.0\nsamples = 74\nvalue = [0, 74]", fillcolor="#399de5"] ;
7 -> 21 ;
22 [label="Fare <= 39.108\ngini = 0.153\nsamples = 24\nvalue = [2, 22]", fillcolor="#4ba6e7"] ;
6 -> 22 ;
23 [label="Fare <= 27.631\ngini = 0.5\nsamples = 2\nvalue = [1, 1]", fillcolor="#ffffff"] ;
22 -> 23 ;
24 [label="gini = 0.0\nsamples = 1\nvalue = [0, 1]", fillcolor="#399de5"] ;
23 -> 24 ;
25 [label="gini = 0.0\nsamples = 1\nvalue = [1, 0]", fillcolor="#e58139"] ;
23 -> 25 ;
26 [label="Familiy_Size <= 2.5\ngini = 0.087\nsamples = 22\nvalue = [1, 21]", fillcolor="#42a2e6"] ;
22 -> 26 ;
27 [label="gini = 0.0\nsamples = 19\nvalue = [0, 19]", fillcolor="#399de5"] ;
26 -> 27 ;
28 [label="marital_status=no <= 0.5\ngini = 0.444\nsamples = 3\nvalue = [1, 2]", fillcolor="#9ccef2"] ;
26 -> 28 ;
29 [label="gini = 0.0\nsamples = 1\nvalue = [1, 0]", fillcolor="#e58139"] ;
28 -> 29 ;
30 [label="gini = 0.0\nsamples = 2\nvalue = [0, 2]", fillcolor="#399de5"] ;
28 -> 30 ;
31 [label="Fare <= 23.35\ngini = 0.5\nsamples = 115\nvalue = [59, 56]", fillcolor="#fef9f5"] ;
1 -> 31 ;
32 [label="Embarked=S <= 0.5\ngini = 0.486\nsamples = 94\nvalue = [39, 55]", fillcolor="#c5e2f7"] ;
31 -> 32 ;
33 [label="Fare <= 15.373\ngini = 0.405\nsamples = 39\nvalue = [11, 28]", fillcolor="#87c4ef"] ;
32 -> 33 ;
34 [label="Fare <= 13.935\ngini = 0.471\nsamples = 29\nvalue = [11, 18]", fillcolor="#b2d9f5"] ;
33 -> 34 ;
35 [label="Fare <= 6.987\ngini = 0.386\nsamples = 23\nvalue = [6, 17]", fillcolor="#7fc0ee"] ;
34 -> 35 ;
36 [label="gini = 0.0\nsamples = 1\nvalue = [1, 0]", fillcolor="#e58139"] ;
35 -> 36 ;
37 [label="Familiy_Size <= 1.5\ngini = 0.351\nsamples = 22\nvalue = [5, 17]", fillcolor="#73baed"] ;
35 -> 37 ;
38 [label="Embarked=Q <= 0.5\ngini = 0.308\nsamples = 21\nvalue = [4, 17]", fillcolor="#68b4eb"] ;
37 -> 38 ;
39 [label="gini = 0.0\nsamples = 5\nvalue = [0, 5]", fillcolor="#399de5"] ;
38 -> 39 ;
40 [label="Fare <= 7.681\ngini = 0.375\nsamples = 16\nvalue = [4, 12]", fillcolor="#7bbeee"] ;
38 -> 40 ;
41 [label="gini = 0.0\nsamples = 1\nvalue = [1, 0]", fillcolor="#e58139"] ;
40 -> 41 ;
42 [label="Fare <= 8.083\ngini = 0.32\nsamples = 15\nvalue = [3, 12]", fillcolor="#6ab6ec"] ;
40 -> 42 ;
43 [label="Age <= 21.5\ngini = 0.245\nsamples = 14\nvalue = [2, 12]", fillcolor="#5aade9"] ;
42 -> 43 ;
44 [label="Age <= 18.5\ngini = 0.444\nsamples = 3\nvalue = [1, 2]", fillcolor="#9ccef2"] ;
43 -> 44 ;
45 [label="gini = 0.0\nsamples = 2\nvalue = [0, 2]", fillcolor="#399de5"] ;
44 -> 45 ;
46 [label="gini = 0.0\nsamples = 1\nvalue = [1, 0]", fillcolor="#e58139"] ;
44 -> 46 ;
47 [label="Fare <= 7.744\ngini = 0.165\nsamples = 11\nvalue = [1, 10]", fillcolor="#4da7e8"] ;
43 -> 47 ;
48 [label="gini = 0.0\nsamples = 2\nvalue = [0, 2]", fillcolor="#399de5"] ;
47 -> 48 ;
49 [label="Fare <= 7.815\ngini = 0.198\nsamples = 9\nvalue = [1, 8]", fillcolor="#52a9e8"] ;
47 -> 49 ;
50 [label="Age <= 23.5\ngini = 0.245\nsamples = 7\nvalue = [1, 6]", fillcolor="#5aade9"] ;
49 -> 50 ;
51 [label="gini = 0.0\nsamples = 1\nvalue = [0, 1]", fillcolor="#399de5"] ;
50 -> 51 ;
52 [label="gini = 0.278\nsamples = 6\nvalue = [1, 5]", fillcolor="#61b1ea"] ;
50 -> 52 ;
53 [label="gini = 0.0\nsamples = 2\nvalue = [0, 2]", fillcolor="#399de5"] ;
49 -> 53 ;
54 [label="gini = 0.0\nsamples = 1\nvalue = [1, 0]", fillcolor="#e58139"] ;
42 -> 54 ;
55 [label="gini = 0.0\nsamples = 1\nvalue = [1, 0]", fillcolor="#e58139"] ;
37 -> 55 ;
56 [label="Age <= 27.0\ngini = 0.278\nsamples = 6\nvalue = [5, 1]", fillcolor="#ea9a61"] ;
34 -> 56 ;
57 [label="gini = 0.0\nsamples = 5\nvalue = [5, 0]", fillcolor="#e58139"] ;
56 -> 57 ;
58 [label="gini = 0.0\nsamples = 1\nvalue = [0, 1]", fillcolor="#399de5"] ;
56 -> 58 ;
59 [label="gini = 0.0\nsamples = 10\nvalue = [0, 10]", fillcolor="#399de5"] ;
33 -> 59 ;
60 [label="Fare <= 7.7\ngini = 0.5\nsamples = 55\nvalue = [28, 27]", fillcolor="#fefaf8"] ;
32 -> 60 ;
61 [label="gini = 0.0\nsamples = 4\nvalue = [0, 4]", fillcolor="#399de5"] ;
60 -> 61 ;
62 [label="Fare <= 10.825\ngini = 0.495\nsamples = 51\nvalue = [28, 23]", fillcolor="#fae8dc"] ;
60 -> 62 ;
63 [label="Age <= 54.0\ngini = 0.428\nsamples = 29\nvalue = [20, 9]", fillcolor="#f1ba92"] ;
62 -> 63 ;
64 [label="Familiy_Size <= 4.0\ngini = 0.408\nsamples = 28\nvalue = [20, 8]", fillcolor="#efb388"] ;
63 -> 64 ;
65 [label="Age <= 25.5\ngini = 0.384\nsamples = 27\nvalue = [20, 7]", fillcolor="#eead7e"] ;
64 -> 65 ;
66 [label="Age <= 19.0\ngini = 0.291\nsamples = 17\nvalue = [14, 3]", fillcolor="#eb9c63"] ;
65 -> 66 ;
67 [label="Age <= 16.0\ngini = 0.48\nsamples = 5\nvalue = [3, 2]", fillcolor="#f6d5bd"] ;
66 -> 67 ;
68 [label="gini = 0.0\nsamples = 2\nvalue = [2, 0]", fillcolor="#e58139"] ;
67 -> 68 ;
69 [label="Fare <= 8.563\ngini = 0.444\nsamples = 3\nvalue = [1, 2]", fillcolor="#9ccef2"] ;
67 -> 69 ;
70 [label="gini = 0.0\nsamples = 1\nvalue = [1, 0]", fillcolor="#e58139"] ;
69 -> 70 ;
71 [label="gini = 0.0\nsamples = 2\nvalue = [0, 2]", fillcolor="#399de5"] ;
69 -> 71 ;
72 [label="Fare <= 7.85\ngini = 0.153\nsamples = 12\nvalue = [11, 1]", fillcolor="#e78c4b"] ;
66 -> 72 ;
73 [label="Age <= 23.5\ngini = 0.5\nsamples = 2\nvalue = [1, 1]", fillcolor="#ffffff"] ;
72 -> 73 ;
74 [label="gini = 0.0\nsamples = 1\nvalue = [0, 1]", fillcolor="#399de5"] ;
73 -> 74 ;
75 [label="gini = 0.0\nsamples = 1\nvalue = [1, 0]", fillcolor="#e58139"] ;
73 -> 75 ;
76 [label="gini = 0.0\nsamples = 10\nvalue = [10, 0]", fillcolor="#e58139"] ;
72 -> 76 ;
77 [label="Age <= 27.5\ngini = 0.48\nsamples = 10\nvalue = [6, 4]", fillcolor="#f6d5bd"] ;
65 -> 77 ;
78 [label="gini = 0.0\nsamples = 3\nvalue = [0, 3]", fillcolor="#399de5"] ;
77 -> 78 ;
79 [label="marital_status=no <= 0.5\ngini = 0.245\nsamples = 7\nvalue = [6, 1]", fillcolor="#e9965a"] ;
77 -> 79 ;
80 [label="Familiy_Size <= 0.5\ngini = 0.444\nsamples = 3\nvalue = [2, 1]", fillcolor="#f2c09c"] ;
79 -> 80 ;
81 [label="gini = 0.0\nsamples = 1\nvalue = [0, 1]", fillcolor="#399de5"] ;
80 -> 81 ;
82 [label="gini = 0.0\nsamples = 2\nvalue = [2, 0]", fillcolor="#e58139"] ;
80 -> 82 ;
83 [label="gini = 0.0\nsamples = 4\nvalue = [4, 0]", fillcolor="#e58139"] ;
79 -> 83 ;
84 [label="gini = 0.0\nsamples = 1\nvalue = [0, 1]", fillcolor="#399de5"] ;
64 -> 84 ;
85 [label="gini = 0.0\nsamples = 1\nvalue = [0, 1]", fillcolor="#399de5"] ;
63 -> 85 ;
86 [label="Familiy_Size <= 3.5\ngini = 0.463\nsamples = 22\nvalue = [8, 14]", fillcolor="#aad5f4"] ;
62 -> 86 ;
87 [label="Age <= 41.5\ngini = 0.388\nsamples = 19\nvalue = [5, 14]", fillcolor="#80c0ee"] ;
86 -> 87 ;
88 [label="Fare <= 13.438\ngini = 0.346\nsamples = 18\nvalue = [4, 14]", fillcolor="#72b9ec"] ;
87 -> 88 ;
89 [label="gini = 0.0\nsamples = 5\nvalue = [0, 5]", fillcolor="#399de5"] ;
88 -> 89 ;
90 [label="Fare <= 15.125\ngini = 0.426\nsamples = 13\nvalue = [4, 9]", fillcolor="#91c9f1"] ;
88 -> 90 ;
91 [label="gini = 0.0\nsamples = 1\nvalue = [1, 0]", fillcolor="#e58139"] ;
90 -> 91 ;
92 [label="Age <= 32.0\ngini = 0.375\nsamples = 12\nvalue = [3, 9]", fillcolor="#7bbeee"] ;
90 -> 92 ;
93 [label="Age <= 25.5\ngini = 0.444\nsamples = 9\nvalue = [3, 6]", fillcolor="#9ccef2"] ;
92 -> 93 ;
94 [label="Fare <= 17.35\ngini = 0.278\nsamples = 6\nvalue = [1, 5]", fillcolor="#61b1ea"] ;
93 -> 94 ;
95 [label="gini = 0.0\nsamples = 4\nvalue = [0, 4]", fillcolor="#399de5"] ;
94 -> 95 ;
96 [label="Age <= 11.0\ngini = 0.5\nsamples = 2\nvalue = [1, 1]", fillcolor="#ffffff"] ;
94 -> 96 ;
97 [label="gini = 0.0\nsamples = 1\nvalue = [0, 1]", fillcolor="#399de5"] ;
96 -> 97 ;
98 [label="gini = 0.0\nsamples = 1\nvalue = [1, 0]", fillcolor="#e58139"] ;
96 -> 98 ;
99 [label="Fare <= 19.262\ngini = 0.444\nsamples = 3\nvalue = [2, 1]", fillcolor="#f2c09c"] ;
93 -> 99 ;
100 [label="gini = 0.0\nsamples = 2\nvalue = [2, 0]", fillcolor="#e58139"] ;
99 -> 100 ;
101 [label="gini = 0.0\nsamples = 1\nvalue = [0, 1]", fillcolor="#399de5"] ;
99 -> 101 ;
102 [label="gini = 0.0\nsamples = 3\nvalue = [0, 3]", fillcolor="#399de5"] ;
92 -> 102 ;
103 [label="gini = 0.0\nsamples = 1\nvalue = [1, 0]", fillcolor="#e58139"] ;
87 -> 103 ;
104 [label="gini = 0.0\nsamples = 3\nvalue = [3, 0]", fillcolor="#e58139"] ;
86 -> 104 ;
105 [label="Age <= 5.5\ngini = 0.091\nsamples = 21\nvalue = [20, 1]", fillcolor="#e68743"] ;
31 -> 105 ;
106 [label="Age <= 3.5\ngini = 0.444\nsamples = 3\nvalue = [2, 1]", fillcolor="#f2c09c"] ;
105 -> 106 ;
107 [label="gini = 0.0\nsamples = 2\nvalue = [2, 0]", fillcolor="#e58139"] ;
106 -> 107 ;
108 [label="gini = 0.0\nsamples = 1\nvalue = [0, 1]", fillcolor="#399de5"] ;
106 -> 108 ;
109 [label="gini = 0.0\nsamples = 18\nvalue = [18, 0]", fillcolor="#e58139"] ;
105 -> 109 ;
110 [label="Age <= 6.5\ngini = 0.303\nsamples = 467\nvalue = [380, 87]", fillcolor="#eb9e66"] ;
0 -> 110 [labeldistance=2.5, labelangle=-45, headlabel="False"] ;
111 [label="Familiy_Size <= 3.5\ngini = 0.434\nsamples = 22\nvalue = [7, 15]", fillcolor="#95cbf1"] ;
110 -> 111 ;
112 [label="gini = 0.0\nsamples = 14\nvalue = [0, 14]", fillcolor="#399de5"] ;
111 -> 112 ;
113 [label="Familiy_Size <= 5.5\ngini = 0.219\nsamples = 8\nvalue = [7, 1]", fillcolor="#e99355"] ;
111 -> 113 ;
114 [label="gini = 0.0\nsamples = 5\nvalue = [5, 0]", fillcolor="#e58139"] ;
113 -> 114 ;
115 [label="Age <= 2.0\ngini = 0.444\nsamples = 3\nvalue = [2, 1]", fillcolor="#f2c09c"] ;
113 -> 115 ;
116 [label="gini = 0.0\nsamples = 1\nvalue = [1, 0]", fillcolor="#e58139"] ;
115 -> 116 ;
117 [label="Age <= 3.5\ngini = 0.5\nsamples = 2\nvalue = [1, 1]", fillcolor="#ffffff"] ;
115 -> 117 ;
118 [label="gini = 0.0\nsamples = 1\nvalue = [0, 1]", fillcolor="#399de5"] ;
117 -> 118 ;
119 [label="gini = 0.0\nsamples = 1\nvalue = [1, 0]", fillcolor="#e58139"] ;
117 -> 119 ;
120 [label="Deck=unknown <= 0.5\ngini = 0.271\nsamples = 445\nvalue = [373, 72]", fillcolor="#ea995f"] ;
110 -> 120 ;
121 [label="Fare <= 7.9\ngini = 0.462\nsamples = 80\nvalue = [51, 29]", fillcolor="#f4c9aa"] ;
120 -> 121 ;
122 [label="gini = 0.0\nsamples = 8\nvalue = [8, 0]", fillcolor="#e58139"] ;
121 -> 122 ;
123 [label="Age <= 43.0\ngini = 0.481\nsamples = 72\nvalue = [43, 29]", fillcolor="#f7d6bf"] ;
121 -> 123 ;
124 [label="Deck=E <= 0.5\ngini = 0.5\nsamples = 42\nvalue = [21, 21]", fillcolor="#ffffff"] ;
123 -> 124 ;
125 [label="Deck=B <= 0.5\ngini = 0.491\nsamples = 37\nvalue = [21, 16]", fillcolor="#f9e1d0"] ;
124 -> 125 ;
126 [label="Deck=D <= 0.5\ngini = 0.452\nsamples = 29\nvalue = [19, 10]", fillcolor="#f3c3a1"] ;
125 -> 126 ;
127 [label="Deck=C <= 0.5\ngini = 0.397\nsamples = 22\nvalue = [16, 6]", fillcolor="#efb083"] ;
126 -> 127 ;
128 [label="gini = 0.0\nsamples = 6\nvalue = [6, 0]", fillcolor="#e58139"] ;
127 -> 128 ;
129 [label="Fare <= 132.173\ngini = 0.469\nsamples = 16\nvalue = [10, 6]", fillcolor="#f5cdb0"] ;
127 -> 129 ;
130 [label="Age <= 17.5\ngini = 0.497\nsamples = 13\nvalue = [7, 6]", fillcolor="#fbede3"] ;
129 -> 130 ;
131 [label="gini = 0.0\nsamples = 1\nvalue = [0, 1]", fillcolor="#399de5"] ;
130 -> 131 ;
132 [label="Age <= 36.5\ngini = 0.486\nsamples = 12\nvalue = [7, 5]", fillcolor="#f8dbc6"] ;
130 -> 132 ;
133 [label="Fare <= 27.15\ngini = 0.32\nsamples = 5\nvalue = [4, 1]", fillcolor="#eca06a"] ;
132 -> 133 ;
134 [label="gini = 0.0\nsamples = 1\nvalue = [0, 1]", fillcolor="#399de5"] ;
133 -> 134 ;
135 [label="gini = 0.0\nsamples = 4\nvalue = [4, 0]", fillcolor="#e58139"] ;
133 -> 135 ;
136 [label="Fare <= 35.25\ngini = 0.49\nsamples = 7\nvalue = [3, 4]", fillcolor="#cee6f8"] ;
132 -> 136 ;
137 [label="Familiy_Size <= 0.5\ngini = 0.48\nsamples = 5\nvalue = [3, 2]", fillcolor="#f6d5bd"] ;
136 -> 137 ;
138 [label="Fare <= 28.125\ngini = 0.5\nsamples = 4\nvalue = [2, 2]", fillcolor="#ffffff"] ;
137 -> 138 ;
139 [label="gini = 0.0\nsamples = 1\nvalue = [1, 0]", fillcolor="#e58139"] ;
138 -> 139 ;
140 [label="Fare <= 32.75\ngini = 0.444\nsamples = 3\nvalue = [1, 2]", fillcolor="#9ccef2"] ;
138 -> 140 ;
141 [label="gini = 0.0\nsamples = 2\nvalue = [0, 2]", fillcolor="#399de5"] ;
140 -> 141 ;
142 [label="gini = 0.0\nsamples = 1\nvalue = [1, 0]", fillcolor="#e58139"] ;
140 -> 142 ;
143 [label="gini = 0.0\nsamples = 1\nvalue = [1, 0]", fillcolor="#e58139"] ;
137 -> 143 ;
144 [label="gini = 0.0\nsamples = 2\nvalue = [0, 2]", fillcolor="#399de5"] ;
136 -> 144 ;
145 [label="gini = 0.0\nsamples = 3\nvalue = [3, 0]", fillcolor="#e58139"] ;
129 -> 145 ;
146 [label="Age <= 31.5\ngini = 0.49\nsamples = 7\nvalue = [3, 4]", fillcolor="#cee6f8"] ;
126 -> 146 ;
147 [label="Embarked=S <= 0.5\ngini = 0.375\nsamples = 4\nvalue = [3, 1]", fillcolor="#eeab7b"] ;
146 -> 147 ;
148 [label="gini = 0.0\nsamples = 1\nvalue = [0, 1]", fillcolor="#399de5"] ;
147 -> 148 ;
149 [label="gini = 0.0\nsamples = 3\nvalue = [3, 0]", fillcolor="#e58139"] ;
147 -> 149 ;
150 [label="gini = 0.0\nsamples = 3\nvalue = [0, 3]", fillcolor="#399de5"] ;
146 -> 150 ;
151 [label="Age <= 24.5\ngini = 0.375\nsamples = 8\nvalue = [2, 6]", fillcolor="#7bbeee"] ;
125 -> 151 ;
152 [label="gini = 0.0\nsamples = 1\nvalue = [1, 0]", fillcolor="#e58139"] ;
151 -> 152 ;
153 [label="Fare <= 54.5\ngini = 0.245\nsamples = 7\nvalue = [1, 6]", fillcolor="#5aade9"] ;
151 -> 153 ;
154 [label="Title=rareTitle <= 0.5\ngini = 0.5\nsamples = 2\nvalue = [1, 1]", fillcolor="#ffffff"] ;
153 -> 154 ;
155 [label="gini = 0.0\nsamples = 1\nvalue = [1, 0]", fillcolor="#e58139"] ;
154 -> 155 ;
156 [label="gini = 0.0\nsamples = 1\nvalue = [0, 1]", fillcolor="#399de5"] ;
154 -> 156 ;
157 [label="gini = 0.0\nsamples = 5\nvalue = [0, 5]", fillcolor="#399de5"] ;
153 -> 157 ;
158 [label="gini = 0.0\nsamples = 5\nvalue = [0, 5]", fillcolor="#399de5"] ;
124 -> 158 ;
159 [label="Age <= 47.5\ngini = 0.391\nsamples = 30\nvalue = [22, 8]", fillcolor="#eeaf81"] ;
123 -> 159 ;
160 [label="gini = 0.0\nsamples = 9\nvalue = [9, 0]", fillcolor="#e58139"] ;
159 -> 160 ;
161 [label="Age <= 48.5\ngini = 0.472\nsamples = 21\nvalue = [13, 8]", fillcolor="#f5cfb3"] ;
159 -> 161 ;
162 [label="gini = 0.0\nsamples = 2\nvalue = [0, 2]", fillcolor="#399de5"] ;
161 -> 162 ;
163 [label="Age <= 75.0\ngini = 0.432\nsamples = 19\nvalue = [13, 6]", fillcolor="#f1bb94"] ;
161 -> 163 ;
164 [label="Title=rareTitle <= 0.5\ngini = 0.401\nsamples = 18\nvalue = [13, 5]", fillcolor="#efb185"] ;
163 -> 164 ;
165 [label="Embarked=S <= 0.5\ngini = 0.32\nsamples = 15\nvalue = [12, 3]", fillcolor="#eca06a"] ;
164 -> 165 ;
166 [label="Fare <= 97.765\ngini = 0.48\nsamples = 5\nvalue = [3, 2]", fillcolor="#f6d5bd"] ;
165 -> 166 ;
167 [label="Familiy_Size <= 0.5\ngini = 0.444\nsamples = 3\nvalue = [1, 2]", fillcolor="#9ccef2"] ;
166 -> 167 ;
168 [label="gini = 0.0\nsamples = 1\nvalue = [1, 0]", fillcolor="#e58139"] ;
167 -> 168 ;
169 [label="gini = 0.0\nsamples = 2\nvalue = [0, 2]", fillcolor="#399de5"] ;
167 -> 169 ;
170 [label="gini = 0.0\nsamples = 2\nvalue = [2, 0]", fillcolor="#e58139"] ;
166 -> 170 ;
171 [label="Age <= 51.5\ngini = 0.18\nsamples = 10\nvalue = [9, 1]", fillcolor="#e88f4f"] ;
165 -> 171 ;
172 [label="Age <= 50.5\ngini = 0.5\nsamples = 2\nvalue = [1, 1]", fillcolor="#ffffff"] ;
171 -> 172 ;
173 [label="gini = 0.0\nsamples = 1\nvalue = [1, 0]", fillcolor="#e58139"] ;
172 -> 173 ;
174 [label="gini = 0.0\nsamples = 1\nvalue = [0, 1]", fillcolor="#399de5"] ;
172 -> 174 ;
175 [label="gini = 0.0\nsamples = 8\nvalue = [8, 0]", fillcolor="#e58139"] ;
171 -> 175 ;
176 [label="Familiy_Size <= 1.0\ngini = 0.444\nsamples = 3\nvalue = [1, 2]", fillcolor="#9ccef2"] ;
164 -> 176 ;
177 [label="gini = 0.0\nsamples = 2\nvalue = [0, 2]", fillcolor="#399de5"] ;
176 -> 177 ;
178 [label="gini = 0.0\nsamples = 1\nvalue = [1, 0]", fillcolor="#e58139"] ;
176 -> 178 ;
179 [label="gini = 0.0\nsamples = 1\nvalue = [0, 1]", fillcolor="#399de5"] ;
163 -> 179 ;
180 [label="Fare <= 54.248\ngini = 0.208\nsamples = 365\nvalue = [322, 43]", fillcolor="#e89253"] ;
120 -> 180 ;
181 [label="Age <= 32.25\ngini = 0.195\nsamples = 347\nvalue = [309, 38]", fillcolor="#e89051"] ;
180 -> 181 ;
182 [label="Age <= 26.5\ngini = 0.23\nsamples = 249\nvalue = [216, 33]", fillcolor="#e99457"] ;
181 -> 182 ;
183 [label="Title=rareTitle <= 0.5\ngini = 0.189\nsamples = 189\nvalue = [169, 20]", fillcolor="#e89050"] ;
182 -> 183 ;
184 [label="Fare <= 2.006\ngini = 0.172\nsamples = 179\nvalue = [162, 17]", fillcolor="#e88e4e"] ;
183 -> 184 ;
185 [label="Age <= 22.0\ngini = 0.5\nsamples = 2\nvalue = [1, 1]", fillcolor="#ffffff"] ;
184 -> 185 ;
186 [label="gini = 0.0\nsamples = 1\nvalue = [1, 0]", fillcolor="#e58139"] ;
185 -> 186 ;
187 [label="gini = 0.0\nsamples = 1\nvalue = [0, 1]", fillcolor="#399de5"] ;
185 -> 187 ;
188 [label="Embarked=S <= 0.5\ngini = 0.164\nsamples = 177\nvalue = [161, 16]", fillcolor="#e88e4d"] ;
184 -> 188 ;
189 [label="Fare <= 15.621\ngini = 0.249\nsamples = 48\nvalue = [41, 7]", fillcolor="#e9975b"] ;
188 -> 189 ;
190 [label="Age <= 22.5\ngini = 0.18\nsamples = 40\nvalue = [36, 4]", fillcolor="#e88f4f"] ;
189 -> 190 ;
191 [label="Fare <= 6.987\ngini = 0.408\nsamples = 7\nvalue = [5, 2]", fillcolor="#efb388"] ;
190 -> 191 ;
192 [label="gini = 0.0\nsamples = 2\nvalue = [2, 0]", fillcolor="#e58139"] ;
191 -> 192 ;
193 [label="Fare <= 7.227\ngini = 0.48\nsamples = 5\nvalue = [3, 2]", fillcolor="#f6d5bd"] ;
191 -> 193 ;
194 [label="gini = 0.0\nsamples = 1\nvalue = [0, 1]", fillcolor="#399de5"] ;
193 -> 194 ;
195 [label="Age <= 20.5\ngini = 0.375\nsamples = 4\nvalue = [3, 1]", fillcolor="#eeab7b"] ;
193 -> 195 ;
196 [label="Age <= 17.5\ngini = 0.5\nsamples = 2\nvalue = [1, 1]", fillcolor="#ffffff"] ;
195 -> 196 ;
197 [label="gini = 0.0\nsamples = 1\nvalue = [1, 0]", fillcolor="#e58139"] ;
196 -> 197 ;
198 [label="gini = 0.0\nsamples = 1\nvalue = [0, 1]", fillcolor="#399de5"] ;
196 -> 198 ;
199 [label="gini = 0.0\nsamples = 2\nvalue = [2, 0]", fillcolor="#e58139"] ;
195 -> 199 ;
200 [label="Fare <= 7.79\ngini = 0.114\nsamples = 33\nvalue = [31, 2]", fillcolor="#e78946"] ;
190 -> 200 ;
201 [label="Fare <= 7.227\ngini = 0.153\nsamples = 24\nvalue = [22, 2]", fillcolor="#e78c4b"] ;
200 -> 201 ;
202 [label="gini = 0.0\nsamples = 7\nvalue = [7, 0]", fillcolor="#e58139"] ;
201 -> 202 ;
203 [label="Fare <= 7.477\ngini = 0.208\nsamples = 17\nvalue = [15, 2]", fillcolor="#e89253"] ;
201 -> 203 ;
204 [label="gini = 0.278\nsamples = 6\nvalue = [5, 1]", fillcolor="#ea9a61"] ;
203 -> 204 ;
205 [label="Fare <= 7.746\ngini = 0.165\nsamples = 11\nvalue = [10, 1]", fillcolor="#e88e4d"] ;
203 -> 205 ;
206 [label="gini = 0.0\nsamples = 3\nvalue = [3, 0]", fillcolor="#e58139"] ;
205 -> 206 ;
207 [label="Familiy_Size <= 0.5\ngini = 0.219\nsamples = 8\nvalue = [7, 1]", fillcolor="#e99355"] ;
205 -> 207 ;
208 [label="gini = 0.245\nsamples = 7\nvalue = [6, 1]", fillcolor="#e9965a"] ;
207 -> 208 ;
209 [label="gini = 0.0\nsamples = 1\nvalue = [1, 0]", fillcolor="#e58139"] ;
207 -> 209 ;
210 [label="gini = 0.0\nsamples = 9\nvalue = [9, 0]", fillcolor="#e58139"] ;
200 -> 210 ;
211 [label="Fare <= 23.7\ngini = 0.469\nsamples = 8\nvalue = [5, 3]", fillcolor="#f5cdb0"] ;
189 -> 211 ;
212 [label="Age <= 15.5\ngini = 0.48\nsamples = 5\nvalue = [2, 3]", fillcolor="#bddef6"] ;
211 -> 212 ;
213 [label="gini = 0.0\nsamples = 1\nvalue = [1, 0]", fillcolor="#e58139"] ;
212 -> 213 ;
214 [label="Fare <= 20.233\ngini = 0.375\nsamples = 4\nvalue = [1, 3]", fillcolor="#7bbeee"] ;
212 -> 214 ;
215 [label="gini = 0.0\nsamples = 2\nvalue = [0, 2]", fillcolor="#399de5"] ;
214 -> 215 ;
216 [label="Fare <= 22.465\ngini = 0.5\nsamples = 2\nvalue = [1, 1]", fillcolor="#ffffff"] ;
214 -> 216 ;
217 [label="gini = 0.0\nsamples = 1\nvalue = [1, 0]", fillcolor="#e58139"] ;
216 -> 217 ;
218 [label="gini = 0.0\nsamples = 1\nvalue = [0, 1]", fillcolor="#399de5"] ;
216 -> 218 ;
219 [label="gini = 0.0\nsamples = 3\nvalue = [3, 0]", fillcolor="#e58139"] ;
211 -> 219 ;
220 [label="Fare <= 8.206\ngini = 0.13\nsamples = 129\nvalue = [120, 9]", fillcolor="#e78a48"] ;
188 -> 220 ;
221 [label="Fare <= 8.081\ngini = 0.186\nsamples = 77\nvalue = [69, 8]", fillcolor="#e89050"] ;
220 -> 221 ;
222 [label="Familiy_Size <= 0.5\ngini = 0.167\nsamples = 76\nvalue = [69, 7]", fillcolor="#e88e4d"] ;
221 -> 222 ;
223 [label="Age <= 17.0\ngini = 0.134\nsamples = 69\nvalue = [64, 5]", fillcolor="#e78b48"] ;
222 -> 223 ;
224 [label="Fare <= 7.913\ngini = 0.444\nsamples = 3\nvalue = [2, 1]", fillcolor="#f2c09c"] ;
223 -> 224 ;
225 [label="gini = 0.0\nsamples = 1\nvalue = [1, 0]", fillcolor="#e58139"] ;
224 -> 225 ;
226 [label="gini = 0.5\nsamples = 2\nvalue = [1, 1]", fillcolor="#ffffff"] ;
224 -> 226 ;
227 [label="Fare <= 7.798\ngini = 0.114\nsamples = 66\nvalue = [62, 4]", fillcolor="#e78946"] ;
223 -> 227 ;
228 [label="Fare <= 7.763\ngini = 0.236\nsamples = 22\nvalue = [19, 3]", fillcolor="#e99558"] ;
227 -> 228 ;
229 [label="Fare <= 7.196\ngini = 0.133\nsamples = 14\nvalue = [13, 1]", fillcolor="#e78b48"] ;
228 -> 229 ;
230 [label="Fare <= 7.133\ngini = 0.32\nsamples = 5\nvalue = [4, 1]", fillcolor="#eca06a"] ;
229 -> 230 ;
231 [label="gini = 0.0\nsamples = 4\nvalue = [4, 0]", fillcolor="#e58139"] ;
230 -> 231 ;
232 [label="gini = 0.0\nsamples = 1\nvalue = [0, 1]", fillcolor="#399de5"] ;
230 -> 232 ;
233 [label="gini = 0.0\nsamples = 9\nvalue = [9, 0]", fillcolor="#e58139"] ;
229 -> 233 ;
234 [label="Age <= 20.0\ngini = 0.375\nsamples = 8\nvalue = [6, 2]", fillcolor="#eeab7b"] ;
228 -> 234 ;
235 [label="gini = 0.0\nsamples = 2\nvalue = [2, 0]", fillcolor="#e58139"] ;
234 -> 235 ;
236 [label="Age <= 21.5\ngini = 0.444\nsamples = 6\nvalue = [4, 2]", fillcolor="#f2c09c"] ;
234 -> 236 ;
237 [label="gini = 0.0\nsamples = 1\nvalue = [0, 1]", fillcolor="#399de5"] ;
236 -> 237 ;
238 [label="Age <= 24.5\ngini = 0.32\nsamples = 5\nvalue = [4, 1]", fillcolor="#eca06a"] ;
236 -> 238 ;
239 [label="gini = 0.0\nsamples = 2\nvalue = [2, 0]", fillcolor="#e58139"] ;
238 -> 239 ;
240 [label="Age <= 25.5\ngini = 0.444\nsamples = 3\nvalue = [2, 1]", fillcolor="#f2c09c"] ;
238 -> 240 ;
241 [label="gini = 0.5\nsamples = 2\nvalue = [1, 1]", fillcolor="#ffffff"] ;
240 -> 241 ;
242 [label="gini = 0.0\nsamples = 1\nvalue = [1, 0]", fillcolor="#e58139"] ;
240 -> 242 ;
243 [label="Age <= 19.5\ngini = 0.044\nsamples = 44\nvalue = [43, 1]", fillcolor="#e6843e"] ;
227 -> 243 ;
244 [label="Fare <= 7.973\ngini = 0.375\nsamples = 4\nvalue = [3, 1]", fillcolor="#eeab7b"] ;
243 -> 244 ;
245 [label="gini = 0.0\nsamples = 2\nvalue = [2, 0]", fillcolor="#e58139"] ;
244 -> 245 ;
246 [label="gini = 0.5\nsamples = 2\nvalue = [1, 1]", fillcolor="#ffffff"] ;
244 -> 246 ;
247 [label="gini = 0.0\nsamples = 40\nvalue = [40, 0]", fillcolor="#e58139"] ;
243 -> 247 ;
248 [label="Fare <= 7.89\ngini = 0.408\nsamples = 7\nvalue = [5, 2]", fillcolor="#efb388"] ;
222 -> 248 ;
249 [label="Age <= 23.5\ngini = 0.278\nsamples = 6\nvalue = [5, 1]", fillcolor="#ea9a61"] ;
248 -> 249 ;
250 [label="gini = 0.0\nsamples = 4\nvalue = [4, 0]", fillcolor="#e58139"] ;
249 -> 250 ;
251 [label="Age <= 25.5\ngini = 0.5\nsamples = 2\nvalue = [1, 1]", fillcolor="#ffffff"] ;
249 -> 251 ;
252 [label="gini = 0.0\nsamples = 1\nvalue = [0, 1]", fillcolor="#399de5"] ;
251 -> 252 ;
253 [label="gini = 0.0\nsamples = 1\nvalue = [1, 0]", fillcolor="#e58139"] ;
251 -> 253 ;
254 [label="gini = 0.0\nsamples = 1\nvalue = [0, 1]", fillcolor="#399de5"] ;
248 -> 254 ;
255 [label="gini = 0.0\nsamples = 1\nvalue = [0, 1]", fillcolor="#399de5"] ;
221 -> 255 ;
256 [label="Pclass <= 2.5\ngini = 0.038\nsamples = 52\nvalue = [51, 1]", fillcolor="#e6833d"] ;
220 -> 256 ;
257 [label="Fare <= 11.0\ngini = 0.095\nsamples = 20\nvalue = [19, 1]", fillcolor="#e68843"] ;
256 -> 257 ;
258 [label="Age <= 21.5\ngini = 0.32\nsamples = 5\nvalue = [4, 1]", fillcolor="#eca06a"] ;
257 -> 258 ;
259 [label="Age <= 17.5\ngini = 0.444\nsamples = 3\nvalue = [2, 1]", fillcolor="#f2c09c"] ;
258 -> 259 ;
260 [label="gini = 0.0\nsamples = 1\nvalue = [1, 0]", fillcolor="#e58139"] ;
259 -> 260 ;
261 [label="gini = 0.5\nsamples = 2\nvalue = [1, 1]", fillcolor="#ffffff"] ;
259 -> 261 ;
262 [label="gini = 0.0\nsamples = 2\nvalue = [2, 0]", fillcolor="#e58139"] ;
258 -> 262 ;
263 [label="gini = 0.0\nsamples = 15\nvalue = [15, 0]", fillcolor="#e58139"] ;
257 -> 263 ;
264 [label="gini = 0.0\nsamples = 32\nvalue = [32, 0]", fillcolor="#e58139"] ;
256 -> 264 ;
265 [label="Familiy_Size <= 3.0\ngini = 0.42\nsamples = 10\nvalue = [7, 3]", fillcolor="#f0b78e"] ;
183 -> 265 ;
266 [label="gini = 0.0\nsamples = 3\nvalue = [0, 3]", fillcolor="#399de5"] ;
265 -> 266 ;
267 [label="gini = 0.0\nsamples = 7\nvalue = [7, 0]", fillcolor="#e58139"] ;
265 -> 267 ;
268 [label="Age <= 27.5\ngini = 0.339\nsamples = 60\nvalue = [47, 13]", fillcolor="#eca470"] ;
182 -> 268 ;
269 [label="Pclass <= 2.5\ngini = 0.444\nsamples = 6\nvalue = [2, 4]", fillcolor="#9ccef2"] ;
268 -> 269 ;
270 [label="Pclass <= 1.5\ngini = 0.444\nsamples = 3\nvalue = [2, 1]", fillcolor="#f2c09c"] ;
269 -> 270 ;
271 [label="gini = 0.0\nsamples = 1\nvalue = [0, 1]", fillcolor="#399de5"] ;
270 -> 271 ;
272 [label="gini = 0.0\nsamples = 2\nvalue = [2, 0]", fillcolor="#e58139"] ;
270 -> 272 ;
273 [label="gini = 0.0\nsamples = 3\nvalue = [0, 3]", fillcolor="#399de5"] ;
269 -> 273 ;
274 [label="Age <= 28.75\ngini = 0.278\nsamples = 54\nvalue = [45, 9]", fillcolor="#ea9a61"] ;
268 -> 274 ;
275 [label="gini = 0.0\nsamples = 14\nvalue = [14, 0]", fillcolor="#e58139"] ;
274 -> 275 ;
276 [label="Fare <= 7.5\ngini = 0.349\nsamples = 40\nvalue = [31, 9]", fillcolor="#eda672"] ;
274 -> 276 ;
277 [label="gini = 0.0\nsamples = 7\nvalue = [7, 0]", fillcolor="#e58139"] ;
276 -> 277 ;
278 [label="Age <= 29.5\ngini = 0.397\nsamples = 33\nvalue = [24, 9]", fillcolor="#efb083"] ;
276 -> 278 ;
279 [label="Fare <= 14.456\ngini = 0.496\nsamples = 11\nvalue = [6, 5]", fillcolor="#fbeade"] ;
278 -> 279 ;
280 [label="Embarked=S <= 0.5\ngini = 0.469\nsamples = 8\nvalue = [3, 5]", fillcolor="#b0d8f5"] ;
279 -> 280 ;
281 [label="gini = 0.0\nsamples = 3\nvalue = [0, 3]", fillcolor="#399de5"] ;
280 -> 281 ;
282 [label="Fare <= 9.492\ngini = 0.48\nsamples = 5\nvalue = [3, 2]", fillcolor="#f6d5bd"] ;
280 -> 282 ;
283 [label="gini = 0.0\nsamples = 2\nvalue = [2, 0]", fillcolor="#e58139"] ;
282 -> 283 ;
284 [label="Fare <= 10.0\ngini = 0.444\nsamples = 3\nvalue = [1, 2]", fillcolor="#9ccef2"] ;
282 -> 284 ;
285 [label="gini = 0.0\nsamples = 1\nvalue = [0, 1]", fillcolor="#399de5"] ;
284 -> 285 ;
286 [label="Fare <= 11.75\ngini = 0.5\nsamples = 2\nvalue = [1, 1]", fillcolor="#ffffff"] ;
284 -> 286 ;
287 [label="gini = 0.0\nsamples = 1\nvalue = [1, 0]", fillcolor="#e58139"] ;
286 -> 287 ;
288 [label="gini = 0.0\nsamples = 1\nvalue = [0, 1]", fillcolor="#399de5"] ;
286 -> 288 ;
289 [label="gini = 0.0\nsamples = 3\nvalue = [3, 0]", fillcolor="#e58139"] ;
279 -> 289 ;
290 [label="Age <= 30.5\ngini = 0.298\nsamples = 22\nvalue = [18, 4]", fillcolor="#eb9d65"] ;
278 -> 290 ;
291 [label="gini = 0.0\nsamples = 8\nvalue = [8, 0]", fillcolor="#e58139"] ;
290 -> 291 ;
292 [label="Embarked=S <= 0.5\ngini = 0.408\nsamples = 14\nvalue = [10, 4]", fillcolor="#efb388"] ;
290 -> 292 ;
293 [label="gini = 0.0\nsamples = 3\nvalue = [3, 0]", fillcolor="#e58139"] ;
292 -> 293 ;
294 [label="Fare <= 7.815\ngini = 0.463\nsamples = 11\nvalue = [7, 4]", fillcolor="#f4c9aa"] ;
292 -> 294 ;
295 [label="gini = 0.0\nsamples = 1\nvalue = [1, 0]", fillcolor="#e58139"] ;
294 -> 295 ;
296 [label="Fare <= 7.875\ngini = 0.48\nsamples = 10\nvalue = [6, 4]", fillcolor="#f6d5bd"] ;
294 -> 296 ;
297 [label="gini = 0.0\nsamples = 1\nvalue = [0, 1]", fillcolor="#399de5"] ;
296 -> 297 ;
298 [label="Fare <= 7.91\ngini = 0.444\nsamples = 9\nvalue = [6, 3]", fillcolor="#f2c09c"] ;
296 -> 298 ;
299 [label="gini = 0.0\nsamples = 1\nvalue = [1, 0]", fillcolor="#e58139"] ;
298 -> 299 ;
300 [label="Familiy_Size <= 1.5\ngini = 0.469\nsamples = 8\nvalue = [5, 3]", fillcolor="#f5cdb0"] ;
298 -> 300 ;
301 [label="Fare <= 20.925\ngini = 0.49\nsamples = 7\nvalue = [4, 3]", fillcolor="#f8e0ce"] ;
300 -> 301 ;
302 [label="Age <= 31.5\ngini = 0.444\nsamples = 6\nvalue = [4, 2]", fillcolor="#f2c09c"] ;
301 -> 302 ;
303 [label="gini = 0.0\nsamples = 1\nvalue = [0, 1]", fillcolor="#399de5"] ;
302 -> 303 ;
304 [label="Fare <= 8.144\ngini = 0.32\nsamples = 5\nvalue = [4, 1]", fillcolor="#eca06a"] ;
302 -> 304 ;
305 [label="gini = 0.444\nsamples = 3\nvalue = [2, 1]", fillcolor="#f2c09c"] ;
304 -> 305 ;
306 [label="gini = 0.0\nsamples = 2\nvalue = [2, 0]", fillcolor="#e58139"] ;
304 -> 306 ;
307 [label="gini = 0.0\nsamples = 1\nvalue = [0, 1]", fillcolor="#399de5"] ;
301 -> 307 ;
308 [label="gini = 0.0\nsamples = 1\nvalue = [1, 0]", fillcolor="#e58139"] ;
300 -> 308 ;
309 [label="Age <= 38.5\ngini = 0.097\nsamples = 98\nvalue = [93, 5]", fillcolor="#e68844"] ;
181 -> 309 ;
310 [label="gini = 0.0\nsamples = 39\nvalue = [39, 0]", fillcolor="#e58139"] ;
309 -> 310 ;
311 [label="Age <= 45.25\ngini = 0.155\nsamples = 59\nvalue = [54, 5]", fillcolor="#e78d4b"] ;
309 -> 311 ;
312 [label="Familiy_Size <= 0.5\ngini = 0.252\nsamples = 27\nvalue = [23, 4]", fillcolor="#ea975b"] ;
311 -> 312 ;
313 [label="Pclass <= 1.5\ngini = 0.36\nsamples = 17\nvalue = [13, 4]", fillcolor="#eda876"] ;
312 -> 313 ;
314 [label="gini = 0.0\nsamples = 1\nvalue = [0, 1]", fillcolor="#399de5"] ;
313 -> 314 ;
315 [label="Fare <= 7.91\ngini = 0.305\nsamples = 16\nvalue = [13, 3]", fillcolor="#eb9e67"] ;
313 -> 315 ;
316 [label="gini = 0.0\nsamples = 6\nvalue = [6, 0]", fillcolor="#e58139"] ;
315 -> 316 ;
317 [label="Fare <= 7.988\ngini = 0.42\nsamples = 10\nvalue = [7, 3]", fillcolor="#f0b78e"] ;
315 -> 317 ;
318 [label="Age <= 41.5\ngini = 0.444\nsamples = 3\nvalue = [1, 2]", fillcolor="#9ccef2"] ;
317 -> 318 ;
319 [label="gini = 0.5\nsamples = 2\nvalue = [1, 1]", fillcolor="#ffffff"] ;
318 -> 319 ;
320 [label="gini = 0.0\nsamples = 1\nvalue = [0, 1]", fillcolor="#399de5"] ;
318 -> 320 ;
321 [label="Age <= 40.5\ngini = 0.245\nsamples = 7\nvalue = [6, 1]", fillcolor="#e9965a"] ;
317 -> 321 ;
322 [label="gini = 0.0\nsamples = 3\nvalue = [3, 0]", fillcolor="#e58139"] ;
321 -> 322 ;
323 [label="Pclass <= 2.5\ngini = 0.375\nsamples = 4\nvalue = [3, 1]", fillcolor="#eeab7b"] ;
321 -> 323 ;
324 [label="Title=rareTitle <= 0.5\ngini = 0.5\nsamples = 2\nvalue = [1, 1]", fillcolor="#ffffff"] ;
323 -> 324 ;
325 [label="gini = 0.0\nsamples = 1\nvalue = [0, 1]", fillcolor="#399de5"] ;
324 -> 325 ;
326 [label="gini = 0.0\nsamples = 1\nvalue = [1, 0]", fillcolor="#e58139"] ;
324 -> 326 ;
327 [label="gini = 0.0\nsamples = 2\nvalue = [2, 0]", fillcolor="#e58139"] ;
323 -> 327 ;
328 [label="gini = 0.0\nsamples = 10\nvalue = [10, 0]", fillcolor="#e58139"] ;
312 -> 328 ;
329 [label="Age <= 61.5\ngini = 0.061\nsamples = 32\nvalue = [31, 1]", fillcolor="#e6853f"] ;
311 -> 329 ;
330 [label="gini = 0.0\nsamples = 27\nvalue = [27, 0]", fillcolor="#e58139"] ;
329 -> 330 ;
331 [label="Age <= 66.0\ngini = 0.32\nsamples = 5\nvalue = [4, 1]", fillcolor="#eca06a"] ;
329 -> 331 ;
332 [label="Pclass <= 1.5\ngini = 0.5\nsamples = 2\nvalue = [1, 1]", fillcolor="#ffffff"] ;
331 -> 332 ;
333 [label="gini = 0.0\nsamples = 1\nvalue = [1, 0]", fillcolor="#e58139"] ;
332 -> 333 ;
334 [label="gini = 0.0\nsamples = 1\nvalue = [0, 1]", fillcolor="#399de5"] ;
332 -> 334 ;
335 [label="gini = 0.0\nsamples = 3\nvalue = [3, 0]", fillcolor="#e58139"] ;
331 -> 335 ;
336 [label="Fare <= 58.938\ngini = 0.401\nsamples = 18\nvalue = [13, 5]", fillcolor="#efb185"] ;
180 -> 336 ;
337 [label="Age <= 30.0\ngini = 0.444\nsamples = 6\nvalue = [2, 4]", fillcolor="#9ccef2"] ;
336 -> 337 ;
338 [label="Age <= 27.0\ngini = 0.5\nsamples = 4\nvalue = [2, 2]", fillcolor="#ffffff"] ;
337 -> 338 ;
339 [label="Age <= 25.5\ngini = 0.444\nsamples = 3\nvalue = [1, 2]", fillcolor="#9ccef2"] ;
338 -> 339 ;
340 [label="gini = 0.5\nsamples = 2\nvalue = [1, 1]", fillcolor="#ffffff"] ;
339 -> 340 ;
341 [label="gini = 0.0\nsamples = 1\nvalue = [0, 1]", fillcolor="#399de5"] ;
339 -> 341 ;
342 [label="gini = 0.0\nsamples = 1\nvalue = [1, 0]", fillcolor="#e58139"] ;
338 -> 342 ;
343 [label="gini = 0.0\nsamples = 2\nvalue = [0, 2]", fillcolor="#399de5"] ;
337 -> 343 ;
344 [label="Title=rareTitle <= 0.5\ngini = 0.153\nsamples = 12\nvalue = [11, 1]", fillcolor="#e78c4b"] ;
336 -> 344 ;
345 [label="gini = 0.0\nsamples = 10\nvalue = [10, 0]", fillcolor="#e58139"] ;
344 -> 345 ;
346 [label="Age <= 37.5\ngini = 0.5\nsamples = 2\nvalue = [1, 1]", fillcolor="#ffffff"] ;
344 -> 346 ;
347 [label="gini = 0.0\nsamples = 1\nvalue = [1, 0]", fillcolor="#e58139"] ;
346 -> 347 ;
348 [label="gini = 0.0\nsamples = 1\nvalue = [0, 1]", fillcolor="#399de5"] ;
346 -> 348 ;
}