digraph Tree {
node [shape=box] ;
0 [label="X[1] <= -0.403\ngini = 0.5\nsamples = 50\nvalue = [25, 25]"] ;
1 [label="gini = 0.0\nsamples = 19\nvalue = [19, 0]"] ;
0 -> 1 [labeldistance=2.5, labelangle=45, headlabel="True"] ;
2 [label="gini = 0.312\nsamples = 31\nvalue = [6, 25]"] ;
0 -> 2 [labeldistance=2.5, labelangle=-45, headlabel="False"] ;
}